{"parameters/graph_57classifier.weight":{"_type":"histogram","values":[1,0,0,0,1,1,0,0,0,1,1,0,0,0,2,1,0,0,1,1,0,0,2,2,1,1,2,1,1,1,0,2,0,0,0,1,0,3,3,3,1,0,1,2,0,0,0,1,1,0,0,0,0,0,0,4,1,1,0,0,1,1,0,1],"bins":[-0.6822003126144409,-0.6624647378921509,-0.6427291631698608,-0.6229935884475708,-0.6032580137252808,-0.5835224390029907,-0.5637868642807007,-0.5440512895584106,-0.5243157148361206,-0.5045801401138306,-0.48484453558921814,-0.4651089310646057,-0.4453733563423157,-0.42563778162002563,-0.4059022068977356,-0.38616663217544556,-0.3664310574531555,-0.3466954827308655,-0.32695990800857544,-0.3072243332862854,-0.28748875856399536,-0.26775315403938293,-0.2480175793170929,-0.22828200459480286,-0.20854642987251282,-0.18881085515022278,-0.16907525062561035,-0.1493396759033203,-0.12960410118103027,-0.10986852645874023,-0.0901329517364502,-0.07039737701416016,-0.05066180229187012,-0.030926227569580078,-0.011190652847290039,0.008544921875,0.02828049659729004,0.04801607131958008,0.06775164604187012,0.08748725056648254,0.10722282528877258,0.12695840001106262,0.14669397473335266,0.1664295494556427,0.18616515398025513,0.20590072870254517,0.2256363034248352,0.24537187814712524,0.2651074528694153,0.2848430275917053,0.30457860231399536,0.3243141770362854,0.34404975175857544,0.3637853264808655,0.3835209310054779,0.40325650572776794,0.422992080450058,0.442727655172348,0.46246322989463806,0.4821988344192505,0.5019344091415405,0.5216699838638306,0.5414055585861206,0.5611411333084106,0.5808767080307007]},"parameters/graph_57gat1.heads.1.attn_fc.weight":{"values":[2,0,0,0,0,0,0,0,0,1,1,0,0,0,1,1,0,0,0,2,1,0,1,0,1,0,0,0,0,0,0,0,0,0,1,0,0,1,0,0,0,0,1,0,1,0,0,0,0,0,0,0,0,0,0,0,0,0,0,0,0,0,0,1],"bins":[-0.8329595923423767,-0.8021667003631592,-0.7713738083839417,-0.7405809164047241,-0.7097880840301514,-0.6789951324462891,-0.6482023000717163,-0.6174094080924988,-0.5866165161132812,-0.5558236241340637,-0.5250307321548462,-0.49423786997795105,-0.4634449779987335,-0.432652086019516,-0.40185922384262085,-0.3710663318634033,-0.3402734398841858,-0.30948054790496826,-0.27868765592575073,-0.2478947639465332,-0.21710187196731567,-0.18630903959274292,-0.1555161476135254,-0.12472325563430786,-0.09393036365509033,-0.0631374716758728,-0.03234457969665527,-0.0015516877174377441,0.02924114465713501,0.06003403663635254,0.09082692861557007,0.1216198205947876,0.15241265296936035,0.18320554494857788,0.2139984369277954,0.24479132890701294,0.27558422088623047,0.3063770532608032,0.33716994524002075,0.3679628372192383,0.3987557291984558,0.42954862117767334,0.46034151315689087,0.4911344051361084,0.5219272375106812,0.5527201294898987,0.5835130214691162,0.6143059134483337,0.6450988054275513,0.6758916974067688,0.7066845893859863,0.7374774217605591,0.7682703733444214,0.7990632057189941,0.8298560976982117,0.8606489896774292,0.8914418816566467,0.9222347736358643,0.9530276656150818,0.9838205575942993,1.014613389968872,1.0454063415527344,1.0761991739273071,1.1069921255111694,1.1377849578857422],"_type":"histogram"},"_step":9,"gradients/graph_57gat1.heads.2.fc.weight":{"bins":[-0.0071803368628025055,-0.006910852622240782,-0.006641368381679058,-0.006371884141117334,-0.006102399900555611,-0.005832915659993887,-0.005563431419432163,-0.0052939471788704395,-0.005024462938308716,-0.004754978697746992,-0.004485494457185268,-0.004216010216623545,-0.003946525976061821,-0.0036770417355000973,-0.0034075574949383736,-0.00313807325437665,-0.002868589013814926,-0.0025991047732532024,-0.0023296205326914787,-0.002060136292129755,-0.0017906520515680313,-0.0015211678110063076,-0.001251683570444584,-0.0009821993298828602,-0.0007127150893211365,-0.00044323084875941277,-0.00017374660819768906,9.573763236403465e-05,0.00036522187292575836,0.0006347056478261948,0.0009041903540492058,0.0011736750602722168,0.0014431579038500786,0.001712641678750515,0.001982126384973526,0.002251611091196537,0.0025210948660969734,0.002790579106658697,0.003060063347220421,0.0033295475877821445,0.0035990318283438683,0.003868516068905592,0.004138000309467316,0.004407484550029039,0.004676968790590763,0.004946453031152487,0.0052159372717142105,0.005485421512275934,0.005754905752837658,0.006024389993399382,0.006293874233961105,0.006563358474522829,0.006832842715084553,0.0071023269556462765,0.007371811196208,0.007641295436769724,0.007910779677331448,0.008180264383554459,0.008449748158454895,0.008719231933355331,0.008988716639578342,0.009258201345801353,0.00952768512070179,0.009797168895602226,0.010066653601825237],"_type":"histogram","values":[1,1,0,0,0,0,0,0,0,0,2,1,1,1,1,0,2,1,1,4,0,3,1,0,2,1,1,1,1,1,2,3,1,0,2,0,3,1,0,2,2,0,0,0,1,1,0,0,1,0,0,0,0,0,0,0,0,0,0,0,0,0,0,2]},"_runtime":54.1216168,"parameters/graph_57gat1.heads.0.fc.weight":{"values":[2,0,0,1,0,0,0,0,0,0,0,0,0,1,0,0,1,2,0,1,0,1,0,1,1,2,2,1,0,0,0,0,2,1,3,1,4,2,2,0,1,3,3,2,0,1,0,1,0,1,0,0,1,0,1,0,1,1,0,0,0,0,0,1],"bins":[-1.4341399669647217,-1.3909772634506226,-1.3478145599365234,-1.3046518564224243,-1.2614891529083252,-1.2183263301849365,-1.1751636266708374,-1.1320009231567383,-1.0888382196426392,-1.04567551612854,-1.002512812614441,-0.959350049495697,-0.9161873459815979,-0.8730246424674988,-0.8298618793487549,-0.7866991758346558,-0.7435364723205566,-0.7003737688064575,-0.6572110652923584,-0.6140483021736145,-0.5708855986595154,-0.5277228951454163,-0.48456013202667236,-0.44139742851257324,-0.3982347249984741,-0.355072021484375,-0.3119093179702759,-0.26874661445617676,-0.22558379173278809,-0.18242108821868896,-0.13925838470458984,-0.09609568119049072,-0.05293285846710205,-0.00977015495300293,0.03339254856109619,0.07655525207519531,0.11971795558929443,0.1628807783126831,0.20604348182678223,0.24920618534088135,0.29236888885498047,0.3355315923690796,0.3786942958831787,0.4218570590019226,0.46501976251602173,0.5081824660301208,0.5513452291488647,0.5945079326629639,0.637670636177063,0.6808333396911621,0.7239960432052612,0.7671588063240051,0.8103215098381042,0.8534842133522034,0.8966469764709473,0.9398096799850464,0.9829723834991455,1.0261350870132446,1.0692977905273438,1.1124604940414429,1.155623197555542,1.1987860202789307,1.2419487237930298,1.285111427307129,1.328274130821228],"_type":"histogram"},"train_f1":0.7510226600985223,"gradients/graph_57gat1.heads.1.fc.weight":{"values":[2,2,1,1,0,0,0,2,0,2,0,0,0,0,1,0,0,2,1,1,0,5,2,0,1,1,0,1,1,0,1,1,2,0,1,2,0,0,0,1,0,0,2,0,2,1,0,1,0,0,1,0,1,1,2,0,1,0,0,0,0,0,1,1],"bins":[-0.01412825845181942,-0.013660609722137451,-0.013192960992455482,-0.012725312262773514,-0.012257663533091545,-0.011790014803409576,-0.011322366073727608,-0.010854717344045639,-0.01038706861436367,-0.009919419884681702,-0.009451771154999733,-0.008984122425317764,-0.008516472764313221,-0.008048824034631252,-0.007581175304949284,-0.007113526575267315,-0.006645877845585346,-0.0061782291159033775,-0.005710580386221409,-0.00524293165653944,-0.0047752829268574715,-0.004307634197175503,-0.003839985467493534,-0.0033723367378115654,-0.002904687076807022,-0.0024370383471250534,-0.0019693896174430847,-0.001501740887761116,-0.0010340921580791473,-0.0005664434283971786,-9.879469871520996e-05,0.00036885403096675873,0.0008365027606487274,0.001304151490330696,0.0017718002200126648,0.0022394489496946335,0.002707097679376602,0.003174746409058571,0.0036423951387405396,0.004110043868422508,0.004577692598104477,0.00504534225910902,0.005512990988790989,0.005980639718472958,0.006448288448154926,0.006915937177836895,0.007383585907518864,0.007851234637200832,0.008318883366882801,0.00878653209656477,0.009254180826246738,0.009721829555928707,0.010189478285610676,0.010657127946615219,0.011124776676297188,0.011592425405979156,0.012060074135661125,0.012527722865343094,0.012995371595025063,0.013463020324707031,0.013930669054389,0.014398317784070969,0.014865966513752937,0.015333615243434906,0.015801263973116875],"_type":"histogram"},"_wandb":{"runtime":54},"gradients/graph_57gat1.heads.1.attn_fc.weight":{"_type":"histogram","values":[1,1,0,0,1,0,0,0,0,0,0,1,0,0,0,0,1,0,1,0,0,0,0,1,0,2,1,0,0,1,1,0,0,0,0,0,0,0,0,0,0,0,0,0,0,0,0,0,0,0,0,0,0,0,1,0,0,0,0,0,1,0,0,2],"bins":[-0.015011041425168514,-0.014615830965340137,-0.01422062050551176,-0.013825410045683384,-0.013430198654532433,-0.013034988194704056,-0.012639777734875679,-0.012244567275047302,-0.011849356815218925,-0.011454146355390549,-0.011058935895562172,-0.010663725435733795,-0.010268514975905418,-0.009873304516077042,-0.00947809312492609,-0.009082882665097713,-0.008687672205269337,-0.00829246174544096,-0.007897251285612583,-0.007502040360122919,-0.00710683036595583,-0.006711618974804878,-0.0063164085149765015,-0.005921198055148125,-0.005525987595319748,-0.005130777135491371,-0.004735566675662994,-0.004340356215834618,-0.003945144824683666,-0.0035499343648552895,-0.0031547239050269127,-0.002759513445198536,-0.0023643020540475845,-0.0019690915942192078,-0.001573881134390831,-0.0011786706745624542,-0.0007834602147340775,-0.00038824882358312607,6.961636245250702e-06,0.00040217209607362747,0.0007973825559020042,0.001192593015730381,0.0015878034755587578,0.0019830139353871346,0.002378225326538086,0.0027734353207051754,0.0031686462461948395,0.0035638567060232162,0.003959067165851593,0.00435427762567997,0.0047494880855083466,0.005144699010998011,0.005539909470826387,0.005935119930654764,0.006330330856144428,0.006725541315972805,0.007120751775801182,0.0075159622356295586,0.007911172695457935,0.008306384086608887,0.008701594546437263,0.00909680500626564,0.009492015466094017,0.009887225925922394,0.01028243638575077]},"val_f1":0.7777777777777778,"parameters/graph_57classifier.bias":{"_type":"histogram","values":[1,0,0,0,0,0,0,0,0,0,0,0,0,0,0,0,0,0,0,0,0,0,0,0,0,0,0,0,0,0,0,0,0,0,0,0,0,0,0,0,0,0,0,0,0,0,0,0,0,0,0,0,0,0,0,0,0,0,0,0,0,0,0,1],"bins":[-0.019909292459487915,-0.018770892173051834,-0.017632491886615753,-0.01649409346282482,-0.01535569317638874,-0.01421729288995266,-0.013078893534839153,-0.011940494179725647,-0.010802093893289566,-0.009663693606853485,-0.008525294251739979,-0.0073868948966264725,-0.0062484946101903915,-0.005110094323754311,-0.003971695899963379,-0.002833295613527298,-0.001694895327091217,-0.0005564950406551361,0.0005819052457809448,0.0017203036695718765,0.0028587039560079575,0.003997104242444038,0.00513550266623497,0.006273902952671051,0.007412303239107132,0.008550703525543213,0.009689103811979294,0.010827502235770226,0.011965900659561157,0.013104300945997238,0.014242701232433319,0.0153811015188694,0.016519498080015182,0.017657898366451263,0.018796298652887344,0.019934698939323425,0.021073099225759506,0.022211497649550438,0.02334989607334137,0.02448829635977745,0.02562669664621353,0.026765096932649612,0.027903497219085693,0.029041895642876625,0.030180295929312706,0.03131869435310364,0.03245709463953972,0.0335954949259758,0.03473389521241188,0.03587229549884796,0.03701069578528404,0.03814909607172012,0.039287492632865906,0.040425896644592285,0.04156429320573807,0.04270269349217415,0.04384109377861023,0.04497949406504631,0.04611789435148239,0.04725629463791847,0.04839469492435455,0.049533091485500336,0.05067149177193642,0.0518098920583725,0.05294829234480858]},"parameters/graph_57gat1.heads.2.attn_fc.weight":{"values":[1,0,0,0,0,0,0,0,0,1,0,0,0,0,0,1,0,0,0,0,0,0,0,0,0,0,0,0,0,1,0,0,1,3,1,0,0,0,0,0,2,0,0,1,1,0,0,0,0,1,0,0,0,0,0,0,0,0,1,0,0,0,0,1],"bins":[-0.8847693204879761,-0.857327938079834,-0.8298865556716919,-0.8024451732635498,-0.7750038504600525,-0.7475624680519104,-0.7201210856437683,-0.6926797032356262,-0.6652383804321289,-0.6377969980239868,-0.6103556156158447,-0.5829142332077026,-0.5554728507995605,-0.5280314683914185,-0.5005900859832764,-0.47314876317977905,-0.44570738077163696,-0.4182659983634949,-0.39082464575767517,-0.36338329315185547,-0.3359419107437134,-0.3085005283355713,-0.2810591459274292,-0.2536177635192871,-0.22617638111114502,-0.1987350583076477,-0.17129367589950562,-0.14385229349136353,-0.11641091108322144,-0.08896952867507935,-0.06152820587158203,-0.03408682346343994,-0.0066454410552978516,0.02079594135284424,0.04823732376098633,0.07567864656448364,0.10312002897262573,0.13056141138076782,0.1580027937889099,0.185444176197052,0.21288549900054932,0.2403268814086914,0.2677682638168335,0.2952096462249756,0.3226510286331177,0.35009241104125977,0.37753376364707947,0.40497511625289917,0.43241649866104126,0.45985788106918335,0.48729923367500305,0.5147405862808228,0.5421819686889648,0.5696233510971069,0.597064733505249,0.6245061159133911,0.6519474983215332,0.6793888211250305,0.7068302035331726,0.7342715859413147,0.7617129683494568,0.7891542911529541,0.8165956735610962,0.8440370559692383,0.8714784383773804],"_type":"histogram"},"parameters/graph_57gat1.heads.1.fc.weight":{"_type":"histogram","values":[1,0,0,0,0,0,1,0,0,0,0,0,1,0,0,2,0,1,2,1,1,1,2,0,0,0,0,0,0,0,1,1,2,2,0,1,4,1,1,0,1,1,0,1,2,0,4,0,1,0,0,2,0,2,0,0,1,0,0,3,1,0,1,2],"bins":[-1.5462859869003296,-1.5012139081954956,-1.4561418294906616,-1.4110697507858276,-1.3659976720809937,-1.3209255933761597,-1.2758533954620361,-1.2307813167572021,-1.1857092380523682,-1.1406371593475342,-1.0955650806427002,-1.0504930019378662,-1.0054209232330322,-0.9603488445281982,-0.9152767658233643,-0.8702046871185303,-0.8251326084136963,-0.7800605297088623,-0.7349884510040283,-0.6899163722991943,-0.6448442935943604,-0.5997721552848816,-0.5547000765800476,-0.5096280574798584,-0.46455585956573486,-0.4194837808609009,-0.3744117021560669,-0.3293396234512329,-0.2842675447463989,-0.23919546604156494,-0.19412338733673096,-0.14905130863189697,-0.10397922992706299,-0.058907151222229004,-0.01383507251739502,0.031237006187438965,0.07630908489227295,0.12138116359710693,0.16645324230194092,0.2115253210067749,0.2565973997116089,0.3016695976257324,0.34674161672592163,0.3918136954307556,0.4368858337402344,0.48195791244506836,0.5270299911499023,0.5721020698547363,0.6171741485595703,0.6622462272644043,0.7073183059692383,0.7523903846740723,0.7974624633789062,0.8425345420837402,0.887606680393219,0.932678759098053,0.977750837802887,1.0228228569030762,1.0678949356079102,1.1129671335220337,1.1580392122268677,1.2031112909317017,1.2481833696365356,1.2932554483413696,1.3383275270462036]},"parameters/graph_57gat1.heads.0.attn_fc.weight":{"values":[1,0,0,0,0,0,0,0,0,0,0,0,0,0,0,0,0,0,0,1,1,0,0,0,0,0,1,0,0,0,2,1,0,2,1,0,1,0,0,0,0,0,0,0,0,1,0,1,0,1,0,0,0,0,0,0,0,1,0,0,0,0,0,1],"bins":[-0.9622912406921387,-0.9336327314376831,-0.9049742817878723,-0.8763158321380615,-0.847657322883606,-0.8189988136291504,-0.7903403639793396,-0.7616819143295288,-0.7330234050750732,-0.7043648958206177,-0.6757064461708069,-0.6470479965209961,-0.6183894872665405,-0.589730978012085,-0.5610725283622742,-0.5324140787124634,-0.5037555694580078,-0.47509709000587463,-0.44643861055374146,-0.41778016090393066,-0.3891216516494751,-0.36046314239501953,-0.33180469274520874,-0.30314624309539795,-0.2744877338409424,-0.24582922458648682,-0.21717077493667603,-0.18851232528686523,-0.15985381603240967,-0.1311953067779541,-0.10253685712814331,-0.07387840747833252,-0.04521983861923218,-0.01656132936477661,0.01209712028503418,0.04075556993484497,0.06941407918930054,0.0980725884437561,0.1267310380935669,0.15538948774337769,0.18404799699783325,0.21270650625228882,0.2413649559020996,0.2700234055519104,0.29868191480636597,0.32734042406082153,0.3559988737106323,0.3846573531627655,0.4133158326148987,0.44197431206703186,0.47063279151916504,0.4992912709712982,0.5279497504234314,0.5566082000732422,0.5852667093276978,0.6139252185821533,0.6425836682319641,0.6712421178817749,0.6999006271362305,0.728559136390686,0.7572175860404968,0.7858760356903076,0.8145345449447632,0.8431930541992188,0.8718515038490295],"_type":"histogram"},"train_accuracy":0.752,"gradients/graph_57gat1.heads.0.fc.weight":{"_type":"histogram","values":[1,0,1,0,0,1,1,0,0,0,0,0,0,2,0,0,2,1,0,0,0,0,0,1,0,1,0,1,3,2,1,1,0,1,1,2,2,2,2,5,0,1,0,3,0,0,0,0,0,1,1,1,1,1,1,1,1,0,0,0,0,0,1,1],"bins":[-0.014653677120804787,-0.01425203774124384,-0.013850398361682892,-0.013448758982121944,-0.013047119602560997,-0.012645481154322624,-0.012243841774761677,-0.01184220239520073,-0.011440563015639782,-0.011038923636078835,-0.010637284256517887,-0.01023564487695694,-0.009834006428718567,-0.009432366117835045,-0.009030727669596672,-0.008629088290035725,-0.008227448910474777,-0.00782580953091383,-0.007424170151352882,-0.007022531237453222,-0.0066208913922309875,-0.006219252943992615,-0.005817613564431667,-0.00541597418487072,-0.0050143348053097725,-0.004612695425748825,-0.004211056046187878,-0.0038094166666269302,-0.0034077782183885574,-0.00300613883882761,-0.0026044994592666626,-0.002202860079705715,-0.0018012216314673424,-0.001399582251906395,-0.0009979428723454475,-0.0005963034927845001,-0.0001946641132235527,0.0002069743350148201,0.0006086137145757675,0.001010253094136715,0.0014118924736976624,0.0018135318532586098,0.002215171232819557,0.0026168106123805046,0.0030184490606188774,0.003420088905841112,0.0038217278197407722,0.00422336719930172,0.004625006578862667,0.0050266459584236145,0.005428285337984562,0.005829924251884222,0.0062315636314451694,0.006633203011006117,0.007034841924905777,0.007436481304466724,0.007838120684027672,0.00823976006358862,0.008641399443149567,0.00904303789138794,0.009444678202271461,0.009846316650509834,0.010247956030070782,0.010649595409631729,0.011051234789192677]},"_timestamp":1.7317089342869663e+09,"parameters/graph_57gat1.heads.2.fc.weight":{"bins":[-0.8810617327690125,-0.8494866490364075,-0.8179115653038025,-0.7863364219665527,-0.7547613382339478,-0.7231862545013428,-0.6916111707687378,-0.6600360870361328,-0.6284610033035278,-0.5968859195709229,-0.5653107762336731,-0.5337356925010681,-0.5021606087684631,-0.47058549523353577,-0.4390104115009308,-0.4074352979660034,-0.37586021423339844,-0.34428513050079346,-0.3127100467681885,-0.2811349034309387,-0.24955981969833374,-0.21798473596572876,-0.18640965223312378,-0.1548345685005188,-0.12325948476791382,-0.09168434143066406,-0.06010925769805908,-0.0285341739654541,0.003040909767150879,0.03461599349975586,0.06619113683700562,0.0977662205696106,0.1293412446975708,0.16091632843017578,0.19249141216278076,0.22406655550003052,0.2556416392326355,0.2872167229652405,0.31879180669784546,0.35036689043045044,0.3819420337677002,0.4135171175003052,0.44509220123291016,0.47666728496551514,0.5082423686981201,0.5398174524307251,0.5713925957679749,0.6029676795005798,0.6345427632331848,0.6661178469657898,0.6976929903030396,0.7292680740356445,0.7608431577682495,0.7924182415008545,0.8239933252334595,0.8555684089660645,0.8871434926986694,0.9187186360359192,0.9502937197685242,0.9818688035011292,1.013443946838379,1.0450190305709839,1.0765941143035889,1.1081691980361938,1.1397442817687988],"_type":"histogram","values":[1,1,0,1,0,0,0,2,1,0,0,3,1,2,0,1,0,1,1,2,2,2,2,0,0,0,1,0,0,1,2,2,2,1,2,0,0,0,1,0,2,2,2,0,0,0,0,0,1,1,0,0,0,0,0,0,1,1,1,0,1,0,0,1]},"gradients/graph_57classifier.weight":{"bins":[-0.027292964980006218,-0.026440059766173363,-0.025587154552340508,-0.024734249338507652,-0.023881344124674797,-0.02302844077348709,-0.022175535559654236,-0.02132263034582138,-0.020469725131988525,-0.01961681991815567,-0.018763914704322815,-0.01791100949048996,-0.017058104276657104,-0.01620519906282425,-0.015352294780313969,-0.014499389566481113,-0.013646484352648258,-0.012793579138815403,-0.011940673924982548,-0.011087769642472267,-0.010234864428639412,-0.009381959214806557,-0.008529054000973701,-0.007676148787140846,-0.006823243573307991,-0.005970338359475136,-0.005117433145642281,-0.004264529794454575,-0.0034116245806217194,-0.002558719366788864,-0.001705814152956009,-0.0008529089391231537,-3.725290298461914e-09,0.0008529014885425568,0.001705806702375412,0.002558711916208267,0.0034116171300411224,0.004264522343873978,0.005117425695061684,0.005970330908894539,0.006823236122727394,0.007676141336560249,0.008529046550393105,0.00938195176422596,0.010234856978058815,0.01108776219189167,0.01194066647440195,0.012793571688234806,0.013646476902067661,0.014499382115900517,0.015352287329733372,0.016205191612243652,0.017058096826076508,0.017911002039909363,0.018763907253742218,0.019616812467575073,0.02046971768140793,0.021322622895240784,0.02217552810907364,0.023028433322906494,0.0238813366740942,0.024734241887927055,0.02558714710175991,0.026440052315592766,0.02729295752942562],"_type":"histogram","values":[1,0,0,0,1,0,0,0,0,0,0,0,2,0,0,1,2,1,0,1,0,2,1,2,0,1,2,2,0,4,1,0,0,1,4,0,2,2,1,0,2,1,2,0,1,0,1,2,1,0,0,2,0,0,0,0,0,0,0,1,0,0,0,1]},"val_loss":0.43665874749422073,"gradients/graph_57classifier.bias":{"_type":"histogram","values":[1,0,0,0,0,0,0,0,0,0,0,0,0,0,0,0,0,0,0,0,0,0,0,0,0,0,0,0,0,0,0,0,0,0,0,0,0,0,0,0,0,0,0,0,0,0,0,0,0,0,0,0,0,0,0,0,0,0,0,0,0,0,0,1],"bins":[-0.026456717401742935,-0.02562994509935379,-0.024803170934319496,-0.02397639863193035,-0.023149626329541206,-0.022322852164506912,-0.021496079862117767,-0.020669307559728622,-0.019842535257339478,-0.019015761092305183,-0.01818898878991604,-0.017362214624881744,-0.0165354423224926,-0.015708670020103455,-0.014881896786391735,-0.01405512448400259,-0.01322835125029087,-0.012401578016579151,-0.011574805714190006,-0.010748032480478287,-0.009921260178089142,-0.009094486013054848,-0.008267713710665703,-0.007440941408276558,-0.006614167243242264,-0.005787394940853119,-0.004960622638463974,-0.004133850336074829,-0.003307076171040535,-0.00248030386865139,-0.0016535315662622452,-0.000826757401227951,1.4901161193847656e-08,0.0008267872035503387,0.0016535613685846329,0.0024803336709737778,0.0033071059733629227,0.004133880138397217,0.004960652440786362,0.005787424743175507,0.0066141970455646515,0.007440971210598946,0.00826774351298809,0.009094515815377235,0.00992128998041153,0.010748062282800674,0.011574835516512394,0.012401607818901539,0.013228381052613258,0.014055154286324978,0.014881926588714123,0.015708699822425842,0.016535472124814987,0.017362244427204132,0.018189018592238426,0.01901579089462757,0.019842565059661865,0.02066933736205101,0.021496109664440155,0.0223228819668293,0.023149656131863594,0.02397642843425274,0.024803200736641884,0.025629974901676178,0.026456747204065323]},"gradients/graph_57gat1.heads.2.attn_fc.weight":{"_type":"histogram","values":[1,0,0,0,0,0,0,0,0,0,0,0,0,0,0,1,1,0,0,0,1,1,0,1,2,1,2,1,1,0,0,0,1,0,0,1,0,0,0,0,0,0,0,0,0,0,0,0,0,0,0,0,0,0,0,0,0,0,0,0,0,0,0,1],"bins":[-0.0019877897575497627,-0.0019108698470517993,-0.0018339500529691577,-0.0017570301424711943,-0.0016801103483885527,-0.0016031904378905892,-0.0015262705273926258,-0.0014493507333099842,-0.0013724308228120208,-0.0012955109123140574,-0.0012185911182314157,-0.0011416712077334523,-0.001064751297235489,-0.0009878315031528473,-0.0009109115926548839,-0.0008339917985722423,-0.0007570718880742788,-0.0006801519775763154,-0.0006032321834936738,-0.0005263122729957104,-0.00044939247891306877,-0.00037247256841510534,-0.0002955526579171419,-0.0002186328638345003,-0.00014171295333653688,-6.479304283857346e-05,1.2126751244068146e-05,8.904654532670975e-05,0.000165966572239995,0.0002428863663226366,0.0003198061604052782,0.00039672618731856346,0.00047364598140120506,0.0005505657754838467,0.0006274858023971319,0.0007044055964797735,0.0007813253905624151,0.0008582454174757004,0.000935165211558342,0.0010120850056409836,0.001089004916138947,0.0011659248266369104,0.001242844620719552,0.0013197645312175155,0.001396684441715479,0.0014736042357981205,0.001550524146296084,0.0016274439403787255,0.001704363850876689,0.0017812837613746524,0.001858203555457294,0.0019351234659552574,0.002012043260037899,0.0020889630541205406,0.002165883081033826,0.0022428028751164675,0.0023197229020297527,0.0023966426961123943,0.002473562490195036,0.0025504822842776775,0.002627402311190963,0.0027043221052736044,0.002781241899356246,0.0028581619262695312,0.002935081720352173]},"gradients/graph_57gat1.heads.0.attn_fc.weight":{"bins":[-0.010643125511705875,-0.010350354015827179,-0.010057581588625908,-0.009764810092747211,-0.00947203766554594,-0.009179266169667244,-0.008886493742465973,-0.008593722246587276,-0.00830095075070858,-0.008008178323507309,-0.0077154068276286125,-0.007422634866088629,-0.007129862904548645,-0.006837091408669949,-0.006544319447129965,-0.006251547485589981,-0.005958775524049997,-0.005666003562510014,-0.00537323160097003,-0.005080460105091333,-0.00478768814355135,-0.004494916182011366,-0.004202144220471382,-0.003909372258931398,-0.0036166002973914146,-0.003323828801512718,-0.0030310568399727345,-0.0027382848784327507,-0.0024455133825540543,-0.002152740955352783,-0.0018599694594740868,-0.0015671970322728157,-0.0012744255363941193,-0.0009816540405154228,-0.0006888816133141518,-0.0003961101174354553,-0.00010333769023418427,0.00018943380564451218,0.0004822057671844959,0.0007749777287244797,0.0010677492246031761,0.0013605211861431599,0.0016532931476831436,0.0019460651092231274,0.002238837070763111,0.002531609032303095,0.0028243805281817913,0.003117152489721775,0.003409924451261759,0.0037026964128017426,0.003995468374341726,0.00428824033588171,0.0045810118317604065,0.00487378379330039,0.005166555754840374,0.0054593272507190704,0.0057520996779203415,0.006044871173799038,0.006337643135339022,0.006630415096879005,0.006923187058418989,0.007215959019958973,0.007508730515837669,0.007801502477377653,0.008094274438917637],"_type":"histogram","values":[1,0,0,0,0,0,0,0,0,0,0,0,0,0,0,1,0,0,1,0,0,0,1,0,0,0,0,1,0,2,1,0,0,0,0,0,0,1,0,1,0,0,1,0,1,0,0,2,0,0,0,0,0,0,0,0,0,0,0,0,1,0,0,1]},"val_accuracy":0.7777777777777778,"train_loss":0.5083963852375746,"epoch":10}